FANN_FLO_2.1
num_layers=2
learning_rate=0.700000
connection_rate=1.000000
network_type=1
learning_momentum=0.000000
training_algorithm=2
train_error_function=1
train_stop_function=0
cascade_output_change_fraction=0.010000
quickprop_decay=-0.000100
quickprop_mu=1.750000
rprop_increase_factor=1.200000
rprop_decrease_factor=0.500000
rprop_delta_min=0.000000
rprop_delta_max=50.000000
rprop_delta_zero=0.100000
cascade_output_stagnation_epochs=12
cascade_candidate_change_fraction=0.010000
cascade_candidate_stagnation_epochs=12
cascade_max_out_epochs=150
cascade_max_cand_epochs=150
cascade_num_candidate_groups=2
bit_fail_limit=3.49999999999999977796e-01
cascade_candidate_limit=1.00000000000000000000e+03
cascade_weight_multiplier=4.00000000000000022204e-01
cascade_activation_functions_count=10
cascade_activation_functions=3 5 7 8 10 11 14 15 16 17 
cascade_activation_steepnesses_count=4
cascade_activation_steepnesses=2.50000000000000000000e-01 5.00000000000000000000e-01 7.50000000000000000000e-01 1.00000000000000000000e+00 
layer_sizes=197 1 
scale_included=0
neurons (num_inputs, activation_function, activation_steepness)=(0, 0, 0.00000000000000000000e+00) (0, 0, 0.00000000000000000000e+00) (0, 0, 0.00000000000000000000e+00) (0, 0, 0.00000000000000000000e+00) (0, 0, 0.00000000000000000000e+00) (0, 0, 0.00000000000000000000e+00) (0, 0, 0.00000000000000000000e+00) (0, 0, 0.00000000000000000000e+00) (0, 0, 0.00000000000000000000e+00) (0, 0, 0.00000000000000000000e+00) (0, 0, 0.00000000000000000000e+00) (0, 0, 0.00000000000000000000e+00) (0, 0, 0.00000000000000000000e+00) (0, 0, 0.00000000000000000000e+00) (0, 0, 0.00000000000000000000e+00) (0, 0, 0.00000000000000000000e+00) (0, 0, 0.00000000000000000000e+00) (0, 0, 0.00000000000000000000e+00) (0, 0, 0.00000000000000000000e+00) (0, 0, 0.00000000000000000000e+00) (0, 0, 0.00000000000000000000e+00) (0, 0, 0.00000000000000000000e+00) (0, 0, 0.00000000000000000000e+00) (0, 0, 0.00000000000000000000e+00) (0, 0, 0.00000000000000000000e+00) (0, 0, 0.00000000000000000000e+00) (0, 0, 0.00000000000000000000e+00) (0, 0, 0.00000000000000000000e+00) (0, 0, 0.00000000000000000000e+00) (0, 0, 0.00000000000000000000e+00) (0, 0, 0.00000000000000000000e+00) (0, 0, 0.00000000000000000000e+00) (0, 0, 0.00000000000000000000e+00) (0, 0, 0.00000000000000000000e+00) (0, 0, 0.00000000000000000000e+00) (0, 0, 0.00000000000000000000e+00) (0, 0, 0.00000000000000000000e+00) (0, 0, 0.00000000000000000000e+00) (0, 0, 0.00000000000000000000e+00) (0, 0, 0.00000000000000000000e+00) (0, 0, 0.00000000000000000000e+00) (0, 0, 0.00000000000000000000e+00) (0, 0, 0.00000000000000000000e+00) (0, 0, 0.00000000000000000000e+00) (0, 0, 0.00000000000000000000e+00) (0, 0, 0.00000000000000000000e+00) (0, 0, 0.00000000000000000000e+00) (0, 0, 0.00000000000000000000e+00) (0, 0, 0.00000000000000000000e+00) (0, 0, 0.00000000000000000000e+00) (0, 0, 0.00000000000000000000e+00) (0, 0, 0.00000000000000000000e+00) (0, 0, 0.00000000000000000000e+00) (0, 0, 0.00000000000000000000e+00) (0, 0, 0.00000000000000000000e+00) (0, 0, 0.00000000000000000000e+00) (0, 0, 0.00000000000000000000e+00) (0, 0, 0.00000000000000000000e+00) (0, 0, 0.00000000000000000000e+00) (0, 0, 0.00000000000000000000e+00) (0, 0, 0.00000000000000000000e+00) (0, 0, 0.00000000000000000000e+00) (0, 0, 0.00000000000000000000e+00) (0, 0, 0.00000000000000000000e+00) (0, 0, 0.00000000000000000000e+00) (0, 0, 0.00000000000000000000e+00) (0, 0, 0.00000000000000000000e+00) (0, 0, 0.00000000000000000000e+00) (0, 0, 0.00000000000000000000e+00) (0, 0, 0.00000000000000000000e+00) (0, 0, 0.00000000000000000000e+00) (0, 0, 0.00000000000000000000e+00) (0, 0, 0.00000000000000000000e+00) (0, 0, 0.00000000000000000000e+00) (0, 0, 0.00000000000000000000e+00) (0, 0, 0.00000000000000000000e+00) (0, 0, 0.00000000000000000000e+00) (0, 0, 0.00000000000000000000e+00) (0, 0, 0.00000000000000000000e+00) (0, 0, 0.00000000000000000000e+00) (0, 0, 0.00000000000000000000e+00) (0, 0, 0.00000000000000000000e+00) (0, 0, 0.00000000000000000000e+00) (0, 0, 0.00000000000000000000e+00) (0, 0, 0.00000000000000000000e+00) (0, 0, 0.00000000000000000000e+00) (0, 0, 0.00000000000000000000e+00) (0, 0, 0.00000000000000000000e+00) (0, 0, 0.00000000000000000000e+00) (0, 0, 0.00000000000000000000e+00) (0, 0, 0.00000000000000000000e+00) (0, 0, 0.00000000000000000000e+00) (0, 0, 0.00000000000000000000e+00) (0, 0, 0.00000000000000000000e+00) (0, 0, 0.00000000000000000000e+00) (0, 0, 0.00000000000000000000e+00) (0, 0, 0.00000000000000000000e+00) (0, 0, 0.00000000000000000000e+00) (0, 0, 0.00000000000000000000e+00) (0, 0, 0.00000000000000000000e+00) (0, 0, 0.00000000000000000000e+00) (0, 0, 0.00000000000000000000e+00) (0, 0, 0.00000000000000000000e+00) (0, 0, 0.00000000000000000000e+00) (0, 0, 0.00000000000000000000e+00) (0, 0, 0.00000000000000000000e+00) (0, 0, 0.00000000000000000000e+00) (0, 0, 0.00000000000000000000e+00) (0, 0, 0.00000000000000000000e+00) (0, 0, 0.00000000000000000000e+00) (0, 0, 0.00000000000000000000e+00) (0, 0, 0.00000000000000000000e+00) (0, 0, 0.00000000000000000000e+00) (0, 0, 0.00000000000000000000e+00) (0, 0, 0.00000000000000000000e+00) (0, 0, 0.00000000000000000000e+00) (0, 0, 0.00000000000000000000e+00) (0, 0, 0.00000000000000000000e+00) (0, 0, 0.00000000000000000000e+00) (0, 0, 0.00000000000000000000e+00) (0, 0, 0.00000000000000000000e+00) (0, 0, 0.00000000000000000000e+00) (0, 0, 0.00000000000000000000e+00) (0, 0, 0.00000000000000000000e+00) (0, 0, 0.00000000000000000000e+00) (0, 0, 0.00000000000000000000e+00) (0, 0, 0.00000000000000000000e+00) (0, 0, 0.00000000000000000000e+00) (0, 0, 0.00000000000000000000e+00) (0, 0, 0.00000000000000000000e+00) (0, 0, 0.00000000000000000000e+00) (0, 0, 0.00000000000000000000e+00) (0, 0, 0.00000000000000000000e+00) (0, 0, 0.00000000000000000000e+00) (0, 0, 0.00000000000000000000e+00) (0, 0, 0.00000000000000000000e+00) (0, 0, 0.00000000000000000000e+00) (0, 0, 0.00000000000000000000e+00) (0, 0, 0.00000000000000000000e+00) (0, 0, 0.00000000000000000000e+00) (0, 0, 0.00000000000000000000e+00) (0, 0, 0.00000000000000000000e+00) (0, 0, 0.00000000000000000000e+00) (0, 0, 0.00000000000000000000e+00) (0, 0, 0.00000000000000000000e+00) (0, 0, 0.00000000000000000000e+00) (0, 0, 0.00000000000000000000e+00) (0, 0, 0.00000000000000000000e+00) (0, 0, 0.00000000000000000000e+00) (0, 0, 0.00000000000000000000e+00) (0, 0, 0.00000000000000000000e+00) (0, 0, 0.00000000000000000000e+00) (0, 0, 0.00000000000000000000e+00) (0, 0, 0.00000000000000000000e+00) (0, 0, 0.00000000000000000000e+00) (0, 0, 0.00000000000000000000e+00) (0, 0, 0.00000000000000000000e+00) (0, 0, 0.00000000000000000000e+00) (0, 0, 0.00000000000000000000e+00) (0, 0, 0.00000000000000000000e+00) (0, 0, 0.00000000000000000000e+00) (0, 0, 0.00000000000000000000e+00) (0, 0, 0.00000000000000000000e+00) (0, 0, 0.00000000000000000000e+00) (0, 0, 0.00000000000000000000e+00) (0, 0, 0.00000000000000000000e+00) (0, 0, 0.00000000000000000000e+00) (0, 0, 0.00000000000000000000e+00) (0, 0, 0.00000000000000000000e+00) (0, 0, 0.00000000000000000000e+00) (0, 0, 0.00000000000000000000e+00) (0, 0, 0.00000000000000000000e+00) (0, 0, 0.00000000000000000000e+00) (0, 0, 0.00000000000000000000e+00) (0, 0, 0.00000000000000000000e+00) (0, 0, 0.00000000000000000000e+00) (0, 0, 0.00000000000000000000e+00) (0, 0, 0.00000000000000000000e+00) (0, 0, 0.00000000000000000000e+00) (0, 0, 0.00000000000000000000e+00) (0, 0, 0.00000000000000000000e+00) (0, 0, 0.00000000000000000000e+00) (0, 0, 0.00000000000000000000e+00) (0, 0, 0.00000000000000000000e+00) (0, 0, 0.00000000000000000000e+00) (0, 0, 0.00000000000000000000e+00) (0, 0, 0.00000000000000000000e+00) (0, 0, 0.00000000000000000000e+00) (0, 0, 0.00000000000000000000e+00) (0, 0, 0.00000000000000000000e+00) (0, 0, 0.00000000000000000000e+00) (0, 0, 0.00000000000000000000e+00) (0, 0, 0.00000000000000000000e+00) (0, 0, 0.00000000000000000000e+00) (0, 0, 0.00000000000000000000e+00) (0, 0, 0.00000000000000000000e+00) (0, 0, 0.00000000000000000000e+00) (197, 4, 5.00000000000000000000e-01) 
connections (connected_to_neuron, weight)=(0, 7.12489222567427127331e+00) (1, 7.23382034836501031094e+00) (2, 7.20212657268593225979e+00) (3, 7.25223808925267832137e+00) (4, 7.29856183228793131690e+00) (5, 3.71628107376886618329e-01) (6, 3.59167595207273482316e-01) (7, 2.84600364981662301567e-01) (8, 3.25157938111011846072e-01) (9, 1.86122461809617806283e-01) (10, 2.80792659842923786329e-01) (11, 3.56115554972289916069e-01) (12, 2.56830164102979541241e-01) (13, 2.89828038951492505948e-01) (14, 1.75847358132179554246e-01) (15, 2.43432675346539145744e-01) (16, 2.78561642030120126812e-01) (17, 2.68107175494157523588e-01) (18, 1.96033682384909035967e-01) (19, 3.52991364803846741083e-01) (20, 2.14420773818718601866e-01) (21, -1.31205202728443759419e+00) (22, -1.29196384683053833164e+00) (23, -6.98385855641187047738e-01) (24, -7.05139368467306226762e+00) (25, -2.09854556248280621489e+00) (26, -1.32074601892232323941e+00) (27, -1.35382483343375370488e+00) (28, -3.09658959029318436862e+00) (29, -1.26816190030150832690e+00) (30, -1.21508560600488180192e+00) (31, -1.36713109104014463036e+00) (32, -1.35785532723380497622e+00) (33, -2.12093174603355416608e+00) (34, -1.23840677419767319911e+00) (35, -1.18280726735608054945e+00) (36, -1.22815682889611133000e+00) (37, -1.24192361360158343153e+00) (38, -1.26089133707873402024e+00) (39, 2.77118361542712687839e-01) (40, 3.24316103516079146107e-01) (41, 2.00018575092001965610e-01) (42, 2.70549481810686831551e-01) (43, 2.18461833007875166901e-01) (44, 3.27162182412543245391e-01) (45, 2.83712408311915131875e-01) (46, 2.99210076630330834568e-01) (47, 2.43039389738347572090e-01) (48, 1.89135149101756855350e-01) (49, 3.32559327291156336948e-01) (50, 2.33346319837878540815e-01) (51, 2.40871491196391923628e-01) (52, 2.00624552334531025544e-01) (53, 3.21499728408516982636e-01) (54, 3.35964320719520648240e-01) (55, 2.32744630032017868482e-01) (56, 1.87530355577688351287e-01) (57, 1.95335554125009885906e-01) (58, 2.59037051906308934957e-01) (59, 1.99138066581523998089e-01) (60, 3.07290909131546052802e-01) (61, 2.24068698229239443576e-01) (62, 2.12124230849424055823e-01) (63, 3.29552837205785653651e-01) (64, 2.67713144921027379475e-01) (65, 3.53834712052927713444e-01) (66, 3.26862822177517331479e-01) (67, 2.19673568352728193487e-01) (68, 2.92028350779156786743e-01) (69, 2.46088737519727818182e-01) (70, 3.34107498264489655160e-01) (71, 2.53660019590920104982e-01) (72, 2.83422880887646333470e-01) (73, 2.41972545370860658842e-01) (74, 3.09437420874711821561e-01) (75, 2.47900628595873750992e-01) (76, 1.63000518978460018360e-01) (77, 2.45963062800726856016e-01) (78, 3.28255586610137817249e-01) (79, 1.89451236356133367877e-01) (80, 2.15837955480699672517e-01) (81, 1.98917471836832837617e-01) (82, 2.67638295921574065339e-01) (83, 2.53778076091147219984e-01) (84, 3.57732768521266342177e-01) (85, 2.40918181936778941221e-01) (86, 3.23838274399081582633e-01) (87, 1.82578689394638865595e-01) (88, 2.73569304337705321295e-01) (89, 2.20190891601074717476e-01) (90, 2.19032324345211637517e-01) (91, 2.18175778764935601739e-01) (92, 2.81575158199362962641e-01) (93, 2.68472123470552215263e-01) (94, 1.85044181359537762699e-01) (95, 1.86603868416074542003e-01) (96, 2.59622400819164156349e-01) (97, 3.49222571812971616101e-01) (98, 2.43593005044719229657e-01) (99, 1.88966316894005087468e-01) (100, 2.32626874628383634169e-01) (101, 2.15016068604893112459e-01) (102, 2.79941904853973966283e-01) (103, 3.53365323885078685962e-01) (104, 2.94304182344802545135e-01) (105, 2.26694891024369959975e-01) (106, 2.38581517776636636841e-01) (107, 2.94620269599179085418e-01) (108, 3.09973522194145534314e-01) (109, 2.04152669775590933643e-01) (110, 3.21387074324361199373e-01) (111, 1.63127042970529434474e-01) (112, 2.40385709888340265428e-01) (113, 2.26340935541619492355e-01) (114, 2.54220687337593176380e-01) (115, 2.35434043705290807491e-01) (116, 3.04574685754314955499e-01) (117, 2.15374527125491210811e-01) (118, 2.55328301375846167254e-01) (119, 2.15459555387704504437e-01) (120, 2.72880987002482422454e-01) (121, 3.11676193996974326694e-01) (122, 2.70950902428556628099e-01) (123, 1.91771710497529557227e-01) (124, 2.17463882856343021510e-01) (125, 2.93310652064010857210e-01) (126, 2.15691147189520593397e-01) (127, 3.14401851951423672027e-01) (128, 2.79848789265798980619e-01) (129, 2.96599720603288652399e-01) (130, 3.40683737214477533328e-01) (131, 3.49791232170099108956e-01) (132, 3.48931357484098203514e-01) (133, 2.57941207364135727254e-01) (134, 3.40472121350862022560e-01) (135, 2.80551105124585031803e-01) (136, 3.21951666664422153641e-01) (137, 2.16369204516315111197e-01) (138, 2.12486940112580541262e-01) (139, 2.69240754154251971109e-01) (140, 2.57837442567822594519e-01) (141, 1.71189579732625968278e-01) (142, 2.69683365400697871994e-01) (143, 3.35538720732079354114e-01) (144, 2.34846083550161954800e-01) (145, 3.61219621107339738941e-01) (146, 2.08288329733054389248e-01) (147, 1.76736334600161137942e-01) (148, 2.13909713528515205150e-01) (149, 3.00932199384817078425e-01) (150, 2.29511458263782136546e-01) (151, 3.24106268806914121772e-01) (152, 2.49923958770607912427e-01) (153, 3.37777928968255258813e-01) (154, 3.53193547673492425076e-01) (155, 3.04703409902867428105e-01) (156, 3.25137860485904428565e-01) (157, 7.12322571350957889358e-01) (158, 7.62543138342235971017e-01) (159, 1.17827302996897276266e+00) (160, 8.46237860230162897146e-01) (161, 1.22712465864654385328e+00) (162, 1.16537982743475621028e+00) (163, 8.32484783103077607969e-01) (164, 1.32238143428659604695e+00) (165, 8.56585299360520302514e-01) (166, 7.50351453523346978436e-01) (167, 2.94799332186670604017e+00) (168, 2.86319694249353773330e+00) (169, 2.94031650719583370623e-01) (170, 1.95500456803364003333e-01) (171, 2.99300768823998308843e-01) (172, 3.02536798728125888580e-01) (173, 3.02499390573110649161e-01) (174, 2.72155054851761890600e-01) (175, 1.74698447573972071023e-01) (176, 3.01034576976134671256e-01) (177, 3.17758952860732746259e-01) (178, 1.88750350450049703133e-01) (179, 3.52259858780566315062e-01) (180, 2.56006717541234052327e-01) (181, 2.55577376989748361602e-01) (182, 3.13681692883164664476e-01) (183, 3.43246244587758431166e-01) (184, 2.30670871346820044456e-01) (185, 3.04190805852341372706e-01) (186, 2.85265219786310086914e-01) (187, 3.36390586043819161954e-01) (188, 4.48334330219612997581e-01) (189, 2.79629308164627610189e-01) (190, 7.32010399598842464997e+00) (191, 7.28596708939979720299e+00) (192, 7.21156665094727866716e+00) (193, 7.13009485973245826784e+00) (194, 7.24964512660629889496e+00) (195, 7.17855912163628495648e+00) (196, 3.57044075490511203519e-01) 
